2
good 0.457782 0.014681 -0.374705 -0.384816 0.259993 -0.107245 -0.195768 -0.467990 0.001806 0.420581 -0.154286 0.673775 -0.959373 -0.341773 0.436285 0.339148 0.736760 -0.488430 -0.163685 -0.457199 -0.494906 -0.370687 -0.535381 -1.850752 -0.406425 -0.669611 -0.465363 0.346029 -0.169217 0.348259 -0.299525 -0.713526 -0.201447 0.420599 -0.740581 -0.469643 0.481718 -0.813939 0.641107 -0.959664 0.017597 -0.482641 -0.681252 -0.226057 -0.191189 1.115716 -1.135081 0.568579 0.234087 -0.426836 0.098799 -0.743045 0.235778 0.801736 0.895522 -1.116283 0.624541 0.029645 0.508954 -0.084782 -0.277979 -0.198916 0.296151 0.100914 -1.449927 -0.210608 -0.584291 -0.860646 -0.395176 0.730354 -0.316417 -0.011936 0.334563 -0.621617 0.700964 0.266746 0.309835 0.067679 0.630693 -0.702807 0.163019 0.584034 0.696197 0.085261 0.325842 0.320958 0.535241 0.462050 0.131215 0.544744 0.066756 0.168806 0.780510 0.083468 0.798800 0.431841 -0.823863 -0.144724 0.134266 0.886303 
bad -0.475801 -0.500327 1.758685 0.087112 -0.253173 0.476130 0.240186 -0.463975 0.092844 0.525470 -0.123170 0.209421 0.516007 0.085878 -0.037785 0.512248 0.289113 0.388626 0.726823 0.434984 0.421832 0.742786 0.873629 0.632575 1.050195 0.100901 0.379265 -0.685534 0.480676 -0.558492 -0.528160 0.328871 -0.519513 -0.273500 0.589321 0.266920 -0.660692 0.454152 0.011439 -0.076468 -0.206223 0.868888 1.100095 -0.308079 0.578968 0.062646 0.414530 -0.055363 -0.153020 0.077302 -0.247899 0.459208 0.427802 -0.448584 -0.938962 0.035424 0.020476 0.931307 0.015919 -0.505642 -0.168027 -0.619914 0.265346 -0.369466 0.352179 0.593378 0.713107 0.769646 0.569984 -0.181748 0.663435 -0.820956 -0.106183 0.559467 -0.420085 -0.717583 -1.252040 0.005034 -0.506995 -0.341536 0.662340 -0.446898 -0.158312 0.270469 -0.407779 0.152748 0.233343 0.265986 0.390964 -0.278358 0.249893 -0.602567 -0.780341 -0.037143 -0.031188 0.376875 0.380954 0.293705 -0.466063 -0.030364 
