8
support -0.099631 -0.530391 1.228663 0.249566 0.182059 -0.596069 -0.409237 -0.780310 0.675180 -0.448886 -0.502146 -0.318945 0.059491 -0.575039 -0.064793 0.016653 0.223861 0.171030 -0.156383 -0.205751 0.160371 0.316267 0.961834 -0.286288 -0.127904 -0.915597 -0.475275 -0.643518 0.805063 -0.161371 -0.299728 0.436265 -0.459728 0.258757 -0.590355 0.600468 -0.062347 -0.487899 -0.941024 -0.154496 0.302355 0.738048 -0.256991 -0.565614 -0.071403 0.184636 0.481723 0.088287 -0.626259 -1.167205 1.191805 0.128754 -0.061003 0.915019 -0.379821 -0.032981 0.247655 -0.115686 -0.354366 0.468324 0.912593 1.431050 0.090306 -0.222445 0.053406 1.110831 -0.501488 -0.158471 0.894277 0.346012 0.606584 -0.228718 1.486462 -0.476697 -0.064151 -0.240441 -0.797383 -0.499985 0.448103 -0.917957 0.468459 -0.243882 1.208400 -0.473772 0.373632 1.247208 -0.980154 0.798430 0.585245 0.385687 0.597023 0.406548 0.935566 0.734815 0.696280 0.610672 -0.248292 0.816289 -0.096414 -0.588657 
os -0.846586 -0.075371 0.621803 -0.202697 -0.467620 0.445228 0.179580 0.635279 -0.384869 1.062338 0.893251 -0.066782 -0.400358 -0.588599 0.072064 0.068548 -1.063130 0.410491 -0.349464 0.478152 -0.907788 0.329990 -0.380046 -0.475235 0.215343 0.337299 -0.707478 -0.414908 0.389563 -0.376738 -0.499643 0.669004 -1.264222 0.377284 -0.251857 -0.621782 -0.699493 0.174224 -0.035496 -0.006195 -0.017468 0.346319 0.464738 -0.463481 0.474922 0.626707 1.070027 -0.558454 -0.312107 0.884461 0.908187 0.381019 -0.368667 0.357745 -0.434234 0.152109 0.585471 0.084255 0.828388 -1.317335 -0.186523 -0.984200 -0.159282 0.337949 -0.388895 0.243842 0.165456 -0.940668 -0.288190 -0.048109 0.699501 -0.463633 0.526562 0.831385 0.063358 -0.210221 -0.572550 -0.532977 -1.235898 0.156187 0.110218 1.190758 -0.114710 0.793196 0.277870 0.028697 1.038174 -0.649402 0.863812 0.858795 -0.197524 -1.195810 -0.560039 0.830033 0.687035 -0.062664 1.018251 1.052109 -0.726836 0.206323 
display 0.089950 -0.220050 1.610106 0.228133 0.103635 -0.574649 -0.232808 0.033348 -1.054541 0.940446 0.841453 -0.106355 -0.459319 -0.238737 0.433181 1.957148 1.406531 0.359856 0.644281 0.192151 -0.351126 -0.485366 -0.137155 -0.975009 0.995931 -0.585622 0.850342 -0.127765 -1.302552 0.184980 -0.200509 -0.932005 -0.254723 -0.008592 0.491459 -0.253064 0.178622 -0.350401 0.745235 -0.255400 -0.539371 -0.278357 0.276036 0.661106 -0.456776 0.483804 -0.197730 -0.013250 0.179700 0.300343 -0.188844 -0.358321 0.418032 0.259439 -0.214890 -0.430299 -0.448656 -0.493266 0.202509 0.430402 -0.214405 0.563938 0.241867 0.096602 0.123093 0.409781 0.898773 0.201920 -0.343805 0.468036 0.627895 0.261177 -0.364904 1.587913 -0.165164 0.393958 0.169535 0.090369 0.590689 -0.136468 0.390329 0.641329 0.053572 -0.011030 0.183557 1.087509 0.668234 -0.221585 0.875238 -0.221463 0.525783 0.086591 0.500943 1.399355 0.173420 0.077849 -0.618753 0.407040 -0.074382 -0.079355 
battery -0.499028 -0.085490 -0.882484 -0.538359 -0.645086 0.717243 0.093079 0.632512 0.420379 0.872284 -0.792458 0.461967 -0.690134 -0.209596 -0.683381 0.906269 0.044453 -1.157653 0.378251 1.305511 -0.555516 0.040093 1.476857 -0.457394 -0.055411 -0.795815 0.185117 0.022207 0.592765 0.834908 -0.294879 -0.003968 -0.262596 0.688594 -0.119689 0.006999 1.674141 -0.575423 0.997921 -0.308560 -0.135620 -0.388834 -0.629061 -0.648373 0.311256 0.949950 -0.249125 0.100620 -0.305167 -0.263632 -0.279845 0.415475 -0.272935 0.590073 0.795760 0.571441 0.560709 0.046248 0.393612 -0.014389 -1.091118 0.651510 0.467328 -0.982078 0.582144 0.476984 0.336032 -0.651919 -0.118522 -0.388872 0.298560 -0.689922 0.274355 0.072978 -0.061868 -0.322094 -0.749943 0.313305 0.276966 0.144122 0.218566 -0.035580 -0.092845 -0.030161 0.165270 0.874422 0.528177 0.323971 0.434784 -0.067282 0.428298 -0.704890 -0.078523 0.214514 0.169128 0.206213 -1.117162 0.550531 -0.096341 0.698269 
company -0.368090 0.700310 0.022946 1.000886 -0.458877 0.710473 -0.603485 -0.916414 0.286265 0.295693 -0.386459 0.211891 0.088484 -0.244475 0.189075 1.628457 -0.155568 0.308536 0.040942 0.151514 0.718362 0.352945 -0.022443 0.578081 0.450564 -0.390899 1.274307 -0.873265 1.094475 -0.172706 -0.127904 -0.432060 -0.271333 1.072971 -0.397432 -1.072481 -0.659344 0.598756 0.162244 -0.418026 0.784978 0.038308 -0.581986 0.044937 0.218949 -0.053376 -0.616213 0.643021 0.774990 -1.170273 -1.129576 -0.194027 1.568944 0.388090 -0.133793 -0.952520 0.003972 -0.375544 0.123204 -0.058735 0.382490 -0.647003 -0.144244 -0.139596 -0.057942 -0.139594 0.646536 -0.090880 0.189812 0.773280 -0.884809 -0.574539 0.105022 -0.247833 -1.112181 -0.442352 -0.457376 -1.096768 -1.467817 -0.121371 0.966531 0.805779 -0.281515 -0.299033 0.385267 0.203363 1.478629 -0.657153 -0.144551 -0.282319 -0.194072 0.969850 -1.235464 0.408200 1.601654 -0.611804 -0.677944 -0.436450 -0.632206 -0.449592 
mouse -1.018220 0.319453 1.414343 0.259612 1.009666 0.635647 0.553485 0.021782 -0.128890 0.082392 -0.639523 0.198262 0.044583 -0.185428 1.148420 1.416227 -0.159293 -0.476379 -0.183265 0.603049 0.691320 0.135116 -0.451439 -0.124779 1.171557 0.334631 0.045218 -0.376067 0.675353 0.877147 -0.578404 0.174031 -0.667383 0.179176 -0.546111 0.585874 0.019427 0.373562 0.027841 -1.171098 -0.485798 0.261500 0.400898 -0.126754 0.709603 1.279712 0.597539 0.271547 -0.090823 0.371621 -0.070698 0.479734 0.282946 -0.632968 0.297954 0.044214 0.002914 0.422028 -0.432104 -0.932057 -0.733424 -0.806634 0.047393 -0.231588 -0.123004 0.425510 0.299014 0.202024 -0.188462 -0.842274 0.278093 -0.058786 0.001448 0.284182 -0.257771 0.005199 -0.363568 -0.274574 -0.485619 -0.717384 0.260058 0.575363 0.679885 0.546961 -0.087428 0.499633 -0.687470 0.553834 -0.499128 -0.025991 -0.168681 0.056866 0.515103 -0.674222 -0.193493 -0.736464 -0.392456 -0.106828 0.621650 0.506948 
software 0.724753 -0.823111 -0.992170 -0.740807 0.765577 0.098873 -0.105047 -0.259397 -0.836035 1.469610 0.489831 1.101894 -0.431263 0.244467 -0.142175 0.382073 0.801320 0.564761 0.700927 -0.069625 -0.629767 -0.096477 -0.699808 -0.150315 -0.562204 -1.019063 0.206600 -0.533159 0.398482 0.357543 -0.307597 -0.129052 0.348140 -0.189185 -0.220164 -0.229265 0.673941 0.063046 0.031063 -0.642759 -0.061348 0.546993 0.076371 -1.371761 -0.043058 0.738344 -0.356411 -0.345078 0.483028 -0.324529 0.185618 -0.713861 -0.206683 -1.495703 -0.405893 -0.384277 1.007233 -0.415552 -0.430007 -1.263039 0.722630 0.086542 -0.623349 -0.100157 -0.572178 1.032902 -0.272872 -0.224363 -0.348167 0.506307 0.459604 0.522942 0.458013 -1.699215 -0.499637 -1.174782 -0.910666 -0.336686 -0.446100 -1.290401 -0.605486 0.222317 0.628176 -0.439332 -0.919064 -0.201532 -0.237066 -0.169173 0.999636 -0.801972 0.055589 -0.082680 0.441677 0.199834 -0.485342 -0.885469 -0.062884 -0.074118 0.597592 0.344454 
keyboard 0.661350 -0.882262 1.847834 -0.017702 0.115892 -0.952379 0.795909 -0.944860 -0.889415 0.662100 -0.548153 0.088076 -0.389215 -0.288288 -0.017007 0.496673 0.861701 0.067526 0.167939 0.422284 -0.682302 0.082806 1.695042 -0.938562 -0.723885 0.785838 0.418416 0.266859 -0.849886 -1.037124 -0.071138 0.792161 -0.472612 -0.607503 0.602248 -0.618935 0.062359 -0.474498 -0.043297 -0.522789 0.139568 -0.283299 0.010599 -0.142570 0.036831 0.361769 -0.916927 -0.439918 0.313650 -0.512871 -0.143861 -0.985841 -0.352525 0.458889 -0.009820 -0.372932 0.649682 1.170102 0.062695 -1.178119 -0.304708 -1.427333 -0.477240 -1.835961 -0.063219 0.351019 0.118126 -0.616057 -0.646335 1.155207 -0.188002 -0.356985 0.234560 -1.048350 -0.364473 -0.139209 -0.050221 -0.249565 -0.712476 -0.318247 0.904595 -0.808284 0.236429 0.315363 0.742938 -0.113927 0.156084 0.653903 -0.434155 1.304104 -0.368102 0.263675 0.136778 -0.104181 -0.377397 0.754289 0.183248 0.475036 0.517012 0.090250 
