8
support 0.413094 0.397852 0.398851 0.684584 -0.522868 -0.020818 -0.527768 -0.142810 -0.572696 0.475568 -0.166464 0.053057 0.178463 -0.484996 -0.243772 0.634681 0.364177 -0.145626 0.327235 -0.594744 0.090794 0.779722 1.824540 -1.017559 -0.175757 -1.055884 0.502173 -1.056672 0.142342 0.279083 -0.139245 0.542714 -0.938783 -0.400846 -0.451760 -0.038018 -0.255110 -0.590643 -0.744277 0.218719 -0.452353 0.603033 0.433589 -0.300383 0.271227 -0.091275 0.207364 0.098687 -0.719055 -0.650874 -0.039454 0.085141 -0.691103 0.210155 -0.130946 -0.476435 0.194049 0.143503 -0.341237 -0.713432 0.817777 1.183356 0.108848 0.140825 -0.111196 0.113982 -0.248209 -0.335063 1.871454 0.453718 0.345097 0.045297 2.005786 -1.279903 0.170705 0.579896 -1.107691 0.568979 -0.292733 -1.069377 -0.037136 -0.337825 -0.077329 -0.725309 -0.347689 0.319931 -1.004080 0.630274 -0.773820 0.077488 -0.777759 0.947439 0.086155 -0.036227 0.584220 0.600961 0.042584 0.171974 0.217495 0.462174 
os -0.768647 0.613490 1.080944 0.186491 0.153795 -0.060766 -0.194617 0.333447 -0.183842 0.800057 0.628809 0.007305 0.928526 -0.124560 0.048449 -0.226731 -0.160823 0.445187 0.539906 -0.004633 -0.600542 0.674416 -0.029109 -0.426964 0.372127 0.192014 -0.156184 -1.339913 0.005115 -0.005030 -0.094471 0.944617 -0.734934 -0.164155 -0.433761 -0.621525 -0.196329 0.900470 -0.147083 -0.718772 -0.272275 -0.010864 -0.739709 0.769667 0.610801 0.534522 0.036332 -0.689096 0.364249 0.783807 1.746955 -0.232302 0.545916 0.031767 -0.434406 -0.079897 0.718381 -0.055060 1.500702 -0.426959 0.231052 -0.376308 -0.691391 -0.508588 -0.056292 0.569323 1.138195 -0.952129 0.068227 0.161397 0.364927 -0.935993 1.143846 0.369474 -0.340823 -0.519982 0.318846 0.303532 -0.679506 -0.155695 1.001006 -0.319146 -0.829218 0.737636 0.177012 -0.187504 0.333379 -0.042847 1.005207 0.702731 0.925598 -0.549095 -0.421431 -0.594932 -0.368585 -0.212575 0.931870 0.666749 0.061232 -0.594729 
display -0.041223 -0.433495 1.080876 0.277692 0.308034 -0.465454 0.890408 -0.478326 0.049822 0.154796 0.884014 -0.382453 0.427307 -0.216795 1.122193 1.161905 1.631747 0.255349 1.027991 -0.658807 0.202079 0.113847 0.488006 -1.463314 0.675142 0.197880 0.482006 0.343431 -0.792410 0.573406 -0.420164 -0.660580 -0.771537 -0.399992 0.649627 0.076264 -0.172186 0.044272 0.354526 -0.684360 -0.337961 -0.263804 -0.268602 -0.183684 0.249866 0.585778 -0.133918 0.445332 0.240581 -0.842052 -1.132455 -0.854876 -0.190285 0.598559 0.142035 0.131232 -0.295034 -0.257416 0.772124 -0.274309 -1.198321 0.060509 0.134274 -0.251874 -0.328486 0.849037 0.758415 -0.223497 -0.357879 -0.052324 -0.411724 0.039830 -0.123328 0.533072 -0.350305 0.844813 -0.026938 -0.219136 -0.026165 -0.626117 0.256666 0.640711 -0.053355 -0.580734 -0.205022 0.135991 0.601238 0.315331 1.213589 0.708718 0.461718 0.589907 0.174546 0.453581 -0.441002 0.491630 -1.033556 0.096190 0.317498 -0.141548 
battery 0.268369 -0.799878 -0.355451 -0.127216 0.082398 1.061276 0.242582 1.132939 1.024250 0.879348 0.012157 0.827691 -0.507746 0.171956 -0.431084 1.134419 0.424161 0.137990 0.457837 0.544109 -0.417314 0.425152 1.100842 0.158481 -0.098934 -0.193918 -0.720737 -0.103889 0.402852 0.693568 0.797238 0.574791 -0.016411 -0.697871 0.494952 0.895883 0.149805 0.513646 0.524925 0.328552 -0.547300 -0.777308 -0.986978 -0.708568 0.156880 0.849502 -0.366610 -0.426547 0.179714 -0.530861 -0.080159 -0.935692 0.858087 0.258357 -0.138540 0.076795 0.737203 -0.095948 0.420221 -0.459437 -0.627692 0.385296 0.555630 -1.053338 -0.077347 -0.225007 -0.036295 -0.102759 -0.225498 -0.221207 -0.391352 -1.028555 0.498676 -0.404885 0.043747 0.062956 -0.478536 -0.408107 -0.112653 -0.263016 0.949801 -0.421436 0.600136 0.229366 -0.176708 0.924142 -0.398604 0.615420 -0.031066 0.120865 0.264859 -0.369338 0.326340 1.017065 0.389945 0.282976 -0.470037 2.014197 -0.399302 0.894739 
company -0.286874 -0.818442 0.656130 0.015828 -0.386425 -0.092656 0.005645 -0.716858 -0.349800 0.454721 0.501393 0.762209 -0.065310 0.073040 -0.981525 0.652763 -0.235793 0.789207 0.391663 0.697990 -0.354849 0.015582 0.344923 0.837081 1.730325 0.591099 0.862672 0.394696 1.258815 -0.711102 -0.557439 -1.023412 -0.427560 0.789725 0.234056 -0.506818 -0.666041 -0.351041 -0.668222 0.063294 0.358585 -0.456905 -0.041724 0.165701 0.665280 0.237195 -0.214563 -0.089807 0.776724 -1.002965 -0.549785 -0.761743 1.233706 1.242104 -0.447300 -0.440871 0.163782 -0.062992 0.487793 -0.588526 0.404569 -0.847325 0.170710 -0.413219 0.139285 -0.251016 0.302784 1.089699 1.287465 0.301037 -0.763868 -1.044519 -0.163487 0.100188 -0.598503 -0.162514 0.189169 -1.163631 -0.364579 -0.718326 1.021728 -0.348620 0.395544 -0.060028 0.597111 -0.199654 0.230662 0.822944 -0.150441 -1.364100 1.062200 0.929376 -0.784191 -0.707330 1.200418 -0.072905 -0.515291 -0.741099 0.260040 -1.011103 
mouse -0.807144 -0.050446 2.411702 -0.163879 -0.288049 0.061057 0.216212 -0.135230 0.455425 0.539265 -0.078525 1.003227 0.342438 -0.192116 0.201152 1.281823 0.358537 -0.734813 0.180978 -0.128590 0.246535 0.044391 0.325526 0.331576 0.242713 -0.111352 0.136588 -1.071846 0.924887 0.828129 -0.288410 0.070850 0.010011 0.200848 -1.448274 0.487425 0.810320 0.173215 -0.334438 -0.081715 0.618824 0.573466 0.194930 -0.179016 0.465853 1.097537 0.541122 0.278306 -0.035523 0.718804 0.064699 -0.210574 0.234644 0.005776 0.743098 0.141938 -0.097885 0.622591 -0.357792 -0.621781 -0.024336 -0.269565 0.048700 0.280694 0.090791 0.494552 0.305656 0.068994 0.043276 -0.551882 -0.598486 -0.576408 -0.838562 0.100396 0.072677 -0.103399 0.092550 0.788907 0.102273 -0.587493 0.474723 -0.096029 -0.075262 0.711954 0.522346 0.301380 -0.399528 -0.148852 0.216021 -0.250586 -0.265605 -0.085787 0.914533 -0.018810 0.159615 -0.662161 0.069179 0.792511 1.454218 0.062765 
software 0.216079 -1.052859 -0.448570 -1.157386 -0.101720 -0.432231 -0.682316 0.102728 -0.468465 1.009493 0.495425 0.416838 0.404004 0.637217 -0.290033 0.016656 -0.570495 1.210649 0.524092 0.288080 -1.353810 -0.233319 0.029863 0.246067 -0.150625 -0.634199 -0.283330 -0.065656 0.739548 -0.441859 0.093180 -0.531401 -0.208984 -0.095926 -0.561122 0.084950 1.066215 -0.757421 0.491040 -0.503877 0.177049 1.341689 0.227396 -1.042695 -0.082968 0.488597 0.571111 -0.204126 0.537568 0.105888 -0.191985 0.251489 0.314845 -0.873621 0.142418 -0.264032 -0.138308 -1.214118 -0.139486 -0.451297 0.056674 0.768833 -0.138366 0.765472 -0.726086 1.037192 0.903297 -0.580825 0.339459 1.446640 0.441507 0.875185 -0.176668 -1.038052 -0.841686 -0.525749 -0.743730 -0.291459 -0.746876 -0.438554 0.227404 0.864093 0.552347 0.525526 -0.574233 0.178004 0.358714 -0.201665 0.797796 -0.459049 -0.236561 -0.015563 1.153736 0.896754 -0.160402 0.303935 -0.333355 0.819318 0.342055 -0.331625 
keyboard -0.503070 -0.783098 1.432899 0.776427 0.114480 -0.920129 0.061404 -0.587476 -1.003741 1.293197 -0.838584 -0.002767 -0.747403 0.048253 0.182457 0.338015 -0.546062 0.174167 -0.717553 0.407230 -0.130664 0.208115 0.241061 -0.757323 -0.513292 -0.197643 0.895242 0.131088 -0.499151 -0.155740 -0.578264 0.146041 -1.377419 0.626332 -0.179740 0.132254 -0.074928 0.110866 0.571644 -0.583144 -0.460071 -0.409534 0.173033 -0.463261 -1.127162 0.710540 -0.368071 0.483562 0.496775 0.421371 0.064631 0.202507 -0.023186 -0.938726 0.033709 0.082072 0.099860 0.429095 -0.233372 -0.474876 -0.921716 -1.560300 0.243850 -1.235361 -0.666426 -0.326361 -0.584915 -0.081184 -0.671953 1.528575 0.471342 0.078351 0.396002 -0.270164 -0.120568 -0.031845 -0.976790 -0.538256 -0.773294 -0.064451 -0.218452 -0.062519 -0.242658 0.844752 0.211274 1.275484 0.303330 1.007427 -0.437664 0.054683 0.167226 -0.073766 -0.316553 -0.001531 0.646534 0.294033 -0.589577 0.547520 -0.179198 0.314345 
