2
good 0.275118 -0.327104 0.891244 -0.698647 0.737446 -0.233918 -0.234636 0.072070 -0.298142 0.202546 -0.529954 0.232416 -0.434496 0.275998 0.739763 -0.289803 0.603825 -0.372197 0.124608 -0.487159 -1.140522 -0.377641 0.408367 -0.534251 0.629517 -0.502808 -0.350070 0.420667 -0.242231 0.030405 -0.032731 -0.766929 -0.469260 0.596343 -0.598154 -0.571103 0.755805 -0.798978 0.765666 -0.917032 0.374102 -0.184848 0.480463 0.659605 -0.275559 0.885697 -1.330613 -0.205174 0.202763 0.247418 -0.066654 0.129624 -0.953427 0.171850 0.337704 0.415791 0.166276 0.744035 -0.373285 -0.775426 -0.517221 0.362258 0.453027 0.624029 -1.213915 0.256490 -0.288471 -0.976233 -0.083711 1.026612 -0.803691 -0.118889 -0.364678 -1.260390 -0.251845 0.214513 -0.064352 -0.616719 0.231543 -0.445542 -0.190654 0.110010 0.470227 -0.594494 -0.283081 -0.074780 0.467105 0.461246 0.586641 -0.095449 0.326262 0.209884 1.231462 -0.287994 1.123493 0.713656 -0.151227 -0.125190 0.549280 0.270894 
bad -0.733164 -0.330313 -0.055073 0.720849 -0.361045 0.419717 0.091190 -0.817257 0.205207 1.014816 0.305256 0.274057 0.271708 -0.251251 -0.489982 0.863003 -0.126306 0.725555 0.714542 0.750608 1.227222 0.634434 0.272372 -0.694428 -0.040142 -0.060941 0.367874 -0.615472 0.786428 -0.199670 -1.309580 0.093749 -0.355564 -0.079007 0.271378 0.507631 -0.965311 0.748484 -0.184523 -0.336084 -0.071395 0.806474 -0.508406 -0.889932 0.491888 0.139331 0.378715 -0.136959 0.181161 -0.352558 -0.047572 -0.555583 1.036797 0.070678 -0.291181 -1.010530 0.531062 -0.078607 0.330751 -0.115439 0.195952 -0.645999 0.090238 -0.916999 -0.035826 0.315038 0.721790 0.323070 0.935615 -0.349175 0.554898 0.118741 -0.041020 0.725671 -0.147019 -0.445824 -0.442750 0.441163 0.011717 -1.065407 0.925048 -0.444656 0.006281 0.110156 -0.084975 0.596519 0.143890 -0.395077 0.269820 0.185081 0.009351 0.186558 -0.649557 0.377822 -0.118898 -0.099720 0.499647 0.104943 0.031816 0.136534 
